%YAML:1.0
my_svm: !!opencv-ml-svm
   svm_type: C_SVC
   kernel: { type:LINEAR }
   C: 1.
   term_criteria: { epsilon:2.2204460492503131e-016, iterations:100 }
   var_all: 1536
   var_count: 1536
   class_count: 2
   class_labels: !!opencv-matrix
      rows: 1
      cols: 2
      dt: i
      data: [ 0, 1 ]
   sv_total: 1
   support_vectors:
      - [ -2.39928937e-007, -7.28002760e-008, -1.16850018e-007,
          -9.10676476e-008, -1.21394635e-007, -2.12575870e-007,
          -3.37746798e-007, -4.24738488e-007, -4.28150173e-007,
          -5.60780961e-007, -5.85488124e-007, -6.31890202e-007,
          -4.90004254e-007, -3.29752453e-007, -2.67433364e-007,
          -2.62951062e-007, -1.38937835e-007, -1.16361676e-007,
          -5.29870370e-008, -4.89924652e-008, 2.48046135e-008,
          -9.14085305e-008, -2.35554580e-008, -4.37378240e-008,
          -5.32604467e-008, -8.77297168e-008, -3.57572141e-008,
          -6.43849845e-008, -2.92846956e-008, 1.16044863e-008,
          -1.98159480e-008, -3.27814611e-008, 1.49659733e-008,
          -2.55319996e-008, -9.30774959e-008, -9.31857329e-008,
          -1.40008723e-007, -1.30954149e-007, -1.22056136e-007,
          -1.25621042e-007, -1.02846002e-007, -1.24135482e-007,
          -1.61519011e-007, -1.56943088e-007, -9.44731013e-008,
          -1.20539056e-007, -9.89226052e-008, -7.36216919e-008,
          -9.73339382e-008, -8.36404794e-008, -1.34147541e-007,
          -9.03482729e-008, -6.41138840e-008, -1.08774273e-007,
          -7.71940734e-008, -6.45119798e-008, -1.12047275e-007,
          -1.08486269e-007, -6.91531810e-008, -1.07978217e-007,
          -7.31871452e-008, -1.46584881e-007, -1.33682491e-007,
          -7.76517837e-008, -7.71084672e-008, -8.14831083e-008,
          -1.26923780e-007, -9.14491451e-008, -1.38166101e-007,
          -1.03982678e-007, -7.06902341e-008, -1.29759982e-007,
          -6.31420605e-008, -1.26467114e-007, -8.84784939e-008,
          -9.74822356e-008, -1.21442341e-007, -1.02401565e-007,
          -9.45142062e-008, -7.28375014e-008, -8.43170298e-008,
          -8.35940241e-008, -4.85685554e-008, -4.67009080e-008,
          -3.66806496e-008, -4.02952338e-008, -8.14026890e-008,
          -4.34363265e-008, -5.37616813e-008, -1.11331726e-008,
          2.02946948e-009, -5.16120195e-008, 2.38728894e-008,
          -1.20499144e-009, 4.71955985e-009, 1.65995004e-008,
          7.37532835e-009, -2.14322582e-009, 3.97611295e-008,
          -2.67446190e-008, -1.35291183e-008, -5.79555426e-009,
          -3.76067799e-009, 7.12449388e-009, -1.03077751e-008,
          1.51637707e-008, 9.26273014e-009, 3.00493959e-008,
          5.06884881e-008, 2.75838818e-008, 7.20791320e-008,
          1.43608474e-007, 5.75242254e-008, 1.19998901e-007,
          6.18386977e-008, 1.30373948e-007, 9.14050062e-008,
          6.91575366e-008, 6.59609540e-008, 1.00572343e-007,
          1.10082979e-007, 8.00679132e-008, 9.07648428e-008,
          1.14968742e-007, 1.05279305e-007, 1.00815207e-007,
          4.99929236e-008, 2.87003026e-008, 6.49477059e-008,
          3.26465011e-009, 2.87506605e-008, 2.86580253e-008,
          3.82655116e-008, 5.80472417e-008, 3.24180753e-008,
          4.04445899e-008, 5.37145661e-009, 6.75524925e-009,
          2.84227575e-008, 2.96941476e-008, 1.24051960e-008,
          7.43025419e-009, -2.38196112e-008, -1.09449978e-008,
          -2.57138257e-008, -5.22842107e-008, -5.34456248e-008,
          -1.45090553e-007, -1.33818304e-007, -1.46853708e-007,
          -1.91372308e-007, -1.58869454e-007, -9.95691778e-008,
          -5.55453319e-008, -2.71247877e-008, -1.55280333e-009,
          -2.33805526e-008, -1.95261034e-008, 1.76198007e-008,
          5.82314215e-008, 1.34037874e-008, 6.44344667e-008,
          5.43014060e-008, 3.59633852e-008, 5.82607882e-008,
          5.90399463e-009, 7.26051397e-008, 1.20058999e-007,
          2.29284591e-008, 3.26554641e-008, 2.10930171e-008,
          8.75039419e-009, 6.54068444e-008, 3.60443657e-008,
          -3.67110999e-008, -2.57002721e-008, -3.78287313e-009,
          -5.17383185e-008, -5.11092999e-008, -4.88939245e-009,
          -2.83180110e-008, -7.67987913e-008, -1.98110044e-008,
          -3.32962244e-008, -3.69598503e-008, -4.39615668e-008,
          -1.47104124e-008, -7.66211770e-008, -7.34729877e-009,
          -5.34194839e-008, -1.45210244e-008, -3.17027151e-008,
          -4.06885086e-008, -3.59070143e-008, -4.91992509e-008,
          -9.96626923e-008, -8.94489887e-008, -1.04030001e-007,
          -1.03369921e-007, -8.35153315e-008, -7.19493656e-008,
          -1.00110732e-007, -9.41391889e-008, -9.74654881e-008,
          -8.87127740e-008, -8.64453753e-008, -1.40965881e-007,
          -1.40013142e-007, -1.59850501e-007, -1.37019953e-007,
          -1.40086058e-007, -1.19740264e-007, -1.32356533e-007,
          -1.98592957e-007, -2.64620184e-007, -2.09661025e-007,
          -2.11350681e-007, -2.68514356e-007, -2.93629768e-007,
          -1.80600352e-007, -2.00648600e-007, -2.32618831e-007,
          -2.03675498e-007, -2.56505416e-007, -2.24678928e-007,
          -2.67606254e-007, -2.39420928e-007, -2.32455022e-007,
          -1.59113370e-007, -1.56187156e-007, -9.96206779e-008,
          -7.51832445e-008, -6.92540709e-008, -5.74899595e-008,
          -3.71001079e-008, -4.19867909e-008, -3.10386667e-008,
          -3.03236689e-008, -1.18406778e-008, -1.11799681e-008,
          5.35727107e-009, -2.07312012e-009, 2.34685338e-008,
          5.20891730e-009, -3.59962460e-009, 1.48523309e-008,
          1.75522814e-008, 1.60590705e-008, 4.14774970e-009,
          -7.44835482e-009, -1.59583511e-008, -2.66608513e-009,
          -1.55371271e-008, -2.40349385e-009, 8.38399288e-008,
          6.59623311e-007, -7.08498078e-008, -8.79100668e-008,
          -7.06431038e-008, -6.31118056e-008, -1.59895635e-007,
          -2.71500625e-007, -2.39989731e-007, -2.97073228e-007,
          -4.55177457e-007, -4.81783275e-007, -4.73187441e-007,
          -3.74879221e-007, -2.88760134e-007, -9.14520868e-008,
          -2.10417531e-010, 2.58378670e-008, 6.53313705e-008,
          1.02516097e-007, 1.19756663e-007, 9.85765780e-008,
          8.92927261e-008, 1.26503352e-007, 8.15363421e-008,
          1.54596123e-007, 8.03318727e-008, 1.06307112e-007,
          8.89073704e-008, 8.27627815e-008, 4.66584105e-008,
          3.62734087e-009, -3.15088364e-008, -9.02150745e-008,
          -8.42871515e-008, -7.70276145e-008, -5.27878363e-008,
          -1.15977677e-007, -9.05341153e-008, -8.58685496e-008,
          -1.27122831e-007, -1.21041410e-007, -7.70630209e-008,
          -1.31628681e-007, -8.98420041e-008, -1.46781915e-007,
          -1.74071019e-007, -1.24815486e-007, -1.11411481e-007,
          -1.23739014e-007, -1.66667860e-007, -1.16304314e-007,
          -1.66077967e-007, -1.17042802e-007, -1.76902162e-007,
          -1.82226842e-007, -1.07244453e-007, -1.05791877e-007,
          -1.37624127e-007, -9.56359472e-008, -1.04913319e-007,
          -5.34318652e-008, -4.98593202e-008, -9.58361497e-008,
          -4.21529265e-008, -3.77996230e-008, -8.41105745e-008,
          -7.37864383e-008, -4.16699741e-008, -1.39789726e-008,
          2.54789811e-009, 5.52882824e-008, 3.58831898e-008,
          8.39089793e-008, 5.24000541e-008, 1.02714559e-007,
          1.04347684e-007, 1.59380605e-007, 1.89748874e-007,
          1.18163641e-007, 1.39229883e-007, 7.55947056e-008,
          1.02485863e-007, 8.20259771e-008, 1.16030790e-007,
          1.24490938e-007, 1.18072720e-007, 1.28530559e-007,
          1.04081103e-007, 1.51489559e-007, 1.75871818e-007,
          1.78326260e-007, 2.40638855e-007, 1.79987197e-007,
          1.37163141e-007, 9.32726820e-008, 1.09573470e-007,
          6.45235971e-008, 6.66590410e-008, 1.76773618e-008,
          9.84154802e-009, 4.63930618e-008, 5.23435650e-009,
          6.90668429e-008, 6.53894503e-008, 6.72235529e-008,
          7.27621483e-008, 6.22372838e-008, 5.82377098e-008,
          5.84741180e-008, 1.05038332e-007, 7.69006476e-008,
          9.96410492e-008, 1.10865223e-007, 8.73463506e-008,
          1.11805463e-007, 1.09220430e-007, 8.76960087e-008,
          1.31234188e-007, 9.46428855e-008, 9.25012458e-008,
          8.65104042e-008, 8.59685514e-008, 8.65480558e-008,
          7.64276535e-008, 8.65847909e-008, 6.26703169e-008,
          8.33375680e-008, 9.67455023e-008, 8.85134028e-008,
          1.08300142e-007, 9.56662092e-008, 1.08237529e-007,
          6.09461281e-008, 1.11592470e-007, 9.52206847e-008,
          1.49742789e-007, 1.11608614e-007, 1.23824265e-007,
          1.24651450e-007, 1.11686063e-007, 1.13818110e-007,
          9.90909825e-008, 1.05325540e-007, 1.40108213e-007,
          1.00162737e-007, 1.06073806e-007, 1.53064747e-007,
          1.11887545e-007, 1.10773264e-007, 1.01043071e-007,
          1.06726716e-007, 1.41901680e-007, 1.58435782e-007,
          1.67054225e-007, 9.47446921e-008, 5.48407435e-008,
          1.62569389e-008, 4.54678855e-008, 6.43741629e-008,
          6.35641726e-008, 2.98237879e-008, 3.52336862e-008,
          1.15797443e-008, 6.40885673e-008, 2.78859655e-008,
          5.02892910e-008, 3.63564929e-008, 2.26675425e-008,
          1.74511907e-008, 3.06127923e-009, 2.61422652e-008,
          -5.42035217e-008, -6.05604527e-008, -3.82307839e-008,
          -2.34725892e-008, 5.63731339e-010, -2.81572134e-008,
          -2.87641786e-008, 1.60662879e-008, -2.08136353e-009,
          -1.73898815e-008, -1.37296903e-008, -1.67077874e-009,
          -7.18071691e-009, 1.49761767e-008, -1.06854596e-008,
          3.34618520e-008, -8.92727758e-009, -4.19841584e-009,
          1.39660221e-008, 2.78381531e-008, 8.65042082e-009,
          -2.71227596e-009, -2.55736659e-008, 2.32951081e-008,
          2.82964274e-009, -5.92194382e-008, -4.42589752e-008,
          -5.90840621e-008, -7.08296142e-008, -5.05556166e-008,
          -6.64998936e-008, -7.99596762e-008, -6.20331164e-008,
          -4.26586304e-008, -4.73981352e-008, -3.41941337e-008,
          -5.28844346e-008, -1.53969797e-008, -9.52993684e-009,
          1.24032224e-008, -4.40030625e-008, -9.59365742e-009,
          -1.00064845e-007, -5.59714728e-008, -6.93818976e-008,
          -5.03784463e-008, -1.20608831e-007, -1.26870390e-007,
          -2.06610665e-007, -1.41007931e-007, -1.40177164e-007,
          -1.93491999e-007, -1.86602264e-007, -2.04955725e-007,
          -1.98087463e-007, -1.80531444e-007, -2.21204587e-007,
          -1.65890341e-007, -1.76431556e-007, -2.34499126e-007,
          -2.23286747e-007, -1.60703962e-007, -8.34619769e-008,
          -7.89100483e-008, -4.15307788e-008, -4.58721630e-008,
          -2.63938595e-008, -1.18785071e-008, -3.80378040e-009,
          1.62691176e-008, 3.04996539e-009, -5.10750509e-009,
          1.29416708e-008, 6.89580060e-010, 1.90380973e-008,
          1.71496399e-008, 4.13724379e-008, -2.14010609e-009,
          2.46555540e-008, 1.97873273e-008, 2.76198708e-008,
          5.75745673e-008, 4.98025869e-008, 6.75014604e-008,
          1.68757850e-007, 5.06380957e-007, 5.72315066e-008,
          -4.04126723e-008, 1.24032713e-008, -1.25186745e-007,
          -3.16063620e-007, -4.26694328e-007, -4.84408076e-007,
          -4.30386848e-007, -3.41951591e-007, -1.56885918e-007,
          7.06815317e-009, 1.54694348e-007, 2.42560844e-007,
          2.27581296e-007, 2.45403555e-007, 1.95666871e-007,
          2.18870028e-007, 1.55314723e-007, 8.18628578e-008,
          1.52840954e-007, 9.04187516e-008, 5.58024951e-008,
          7.28762473e-008, 3.90000809e-010, 1.29578339e-008,
          -4.33614211e-008, -6.51634622e-008, -1.04203091e-008,
          -7.41736486e-008, -8.18676114e-008, -1.16302090e-007,
          -5.38723448e-008, -6.82448871e-008, -5.03390751e-008,
          -8.37009324e-008, -3.25217968e-008, -8.92829088e-010,
          -3.07329451e-008, 9.62500124e-009, -4.98743766e-008,
          7.78603582e-009, 2.10580928e-010, 1.20993437e-008,
          6.58493393e-009, 5.36120304e-008, 8.61233573e-008,
          -4.58467397e-009, 3.99318658e-008, -4.42942216e-008,
          -7.28303249e-008, -6.59688908e-008, -7.74072006e-008,
          -1.04077500e-007, -8.67214354e-008, -1.20446074e-007,
          -1.17555665e-007, -1.28485183e-007, -6.09558768e-008,
          -1.20278671e-007, -8.52286135e-008, -1.38854233e-007,
          -5.62920981e-008, -1.23864297e-007, -1.13319423e-007,
          -8.45301997e-008, -1.19297084e-007, -3.00924121e-008,
          -3.91653217e-008, -5.40996368e-008, -1.85975431e-008,
          5.03517494e-009, 1.19954864e-008, 2.16741025e-008,
          4.42432508e-008, 1.09460565e-007, 8.83891360e-008,
          1.04219154e-007, 1.03759909e-007, 1.37672174e-007,
          7.89895793e-008, 8.00871831e-008, 6.09193762e-008,
          5.61176456e-008, 9.32617397e-008, 3.60668651e-008,
          7.31737728e-008, 7.21711544e-008, 1.24796287e-007,
          1.39493210e-007, 1.45246460e-007, 1.45599230e-007,
          1.39408797e-007, 1.61257972e-007, 1.47594847e-007,
          2.01185841e-007, 1.47231063e-007, 1.67741490e-007,
          2.00317160e-007, 1.59388691e-007, 1.45980806e-007,
          2.19109339e-007, 2.04997150e-007, 2.84250945e-007,
          2.97569841e-007, 3.45899878e-007, 3.12237518e-007,
          3.39798618e-007, 3.84117783e-007, 3.56379417e-007,
          2.96356745e-007, 3.33595466e-007, 3.05435520e-007,
          2.37959100e-007, 2.30913002e-007, 2.05345785e-007,
          2.31396783e-007, 2.33271109e-007, 2.08865032e-007,
          1.90174759e-007, 1.67186514e-007, 1.90851466e-007,
          1.54266871e-007, 1.65429483e-007, 1.61282784e-007,
          1.27302911e-007, 1.21433644e-007, 1.66473285e-007,
          1.46161270e-007, 1.28798945e-007, 1.39252791e-007,
          1.54067763e-007, 1.33075034e-007, 1.49579321e-007,
          1.79624905e-007, 1.96564500e-007, 1.61222431e-007,
          1.82567760e-007, 1.72979668e-007, 2.07528771e-007,
          1.66660428e-007, 1.94059510e-007, 2.07099205e-007,
          1.86952420e-007, 2.03740868e-007, 1.28407223e-007,
          1.16012544e-007, 1.13777965e-007, 1.00023151e-007,
          1.18778239e-007, 7.77801290e-008, -2.82811752e-009,
          9.59357838e-009, -2.39906033e-008, -4.10937666e-008,
          -9.75916521e-008, -2.07429292e-008, -1.71755978e-008,
          3.86619554e-008, 3.56191023e-008, 3.65487942e-008,
          5.44044774e-008, 1.81372706e-009, 2.16821281e-008,
          4.01935445e-008, 2.87079658e-008, 1.15600542e-008,
          -6.15159435e-009, 2.64354583e-008, -2.04876027e-008,
          -4.18744648e-008, -1.77703918e-009, -1.33101192e-008,
          -6.06180972e-009, 9.65166702e-009, 1.29027802e-008,
          -1.35030538e-008, -1.20436585e-008, -5.71000562e-008,
          1.52322830e-008, -6.05119332e-009, 3.80992873e-008,
          2.08288586e-009, 4.60019827e-008, 4.22796234e-008,
          1.23586847e-008, 1.07909059e-008, 5.30289803e-008,
          6.08559816e-008, 1.09363762e-009, 2.84698611e-008,
          1.36203200e-008, 2.30307204e-008, 9.33341582e-009,
          2.85981816e-008, -2.20129781e-008, -3.13009032e-008,
          -2.75074097e-008, -3.43959137e-008, -3.40546897e-008,
          -4.10255048e-008, -3.13296518e-008, -2.63815423e-008,
          -7.82794061e-008, -4.22562323e-008, -5.03354585e-008,
          -6.05229644e-008, -2.90688380e-008, -5.88312474e-008,
          -5.74665968e-008, -6.98459814e-008, -3.23355636e-008,
          -3.00948457e-008, -1.28281940e-007, -7.80793954e-008,
          -6.65080933e-008, -1.18852391e-007, -1.76965870e-007,
          -1.35268749e-007, -1.46113450e-007, -1.86498184e-007,
          -1.79209877e-007, -1.19012256e-007, -1.57878048e-007,
          -1.30838188e-007, -2.42893123e-007, -2.07813088e-007,
          -1.87248318e-007, -1.97902082e-007, -1.87574258e-007,
          -1.53478751e-007, -1.58346779e-007, -6.72729001e-008,
          -4.82030202e-008, -4.68002739e-008, -5.71039855e-008,
          -5.59327447e-008, -3.33147661e-008, -3.95198754e-008,
          -2.36571402e-008, -2.07123048e-008, -1.91584828e-008,
          -1.50601698e-009, 7.76135689e-009, 9.59979762e-010,
          3.04747871e-008, 5.97787209e-010, 3.71317093e-008,
          2.73736482e-008, 5.09960856e-008, 8.75484147e-008,
          1.94114293e-007, 2.06672439e-007, 9.41038536e-008,
          1.24152253e-008, 4.16505663e-010, -1.14906422e-008,
          -1.21241115e-004, -3.53636096e-005, -5.27221200e-005,
          -4.13183698e-005, -4.97549081e-005, -7.50789040e-005,
          -1.20921497e-004, -1.50185835e-004, -1.45667451e-004,
          -1.99657428e-004, -1.84236036e-004, -2.07137127e-004,
          -1.39984550e-004, -9.08209258e-005, -6.82474565e-005,
          -6.86834101e-005, -1.62506731e-005, -8.70107033e-006,
          1.41997207e-005, 1.48414911e-005, 4.58040158e-005,
          8.63216428e-007, 3.33460084e-005, 9.61939622e-006,
          1.35606151e-005, -5.62432433e-006, 8.19112574e-006,
          -8.70031363e-006, 1.07522483e-005, 9.32783314e-006,
          5.34570609e-006, -7.20005937e-006, -3.55620296e-006,
          -2.26301836e-005, -3.73683506e-005, -3.62122373e-005,
          -4.42500495e-005, -4.56647977e-005, -3.94157178e-005,
          -3.82337785e-005, -3.26278387e-005, -4.15045215e-005,
          -5.39201355e-005, -4.99781345e-005, -3.38013524e-005,
          -4.12121153e-005, -3.37021447e-005, -3.17210397e-005,
          -3.92355651e-005, -3.24456705e-005, -4.48927713e-005,
          -3.33139360e-005, -2.32189195e-005, -3.87371947e-005,
          -3.00823613e-005, -2.70138680e-005, -4.21157929e-005,
          -3.64343505e-005, -2.49382047e-005, -3.91397843e-005,
          -2.83853606e-005, -4.89822341e-005, -4.61514937e-005,
          -2.73095429e-005, -2.75795028e-005, -2.77450090e-005,
          -4.27720624e-005, -3.50080336e-005, -4.58231261e-005,
          -3.13146120e-005, -2.14584707e-005, -3.92909824e-005,
          -1.17972231e-005, -3.11265903e-005, -2.20579441e-005,
          -2.16875414e-005, -2.43297582e-005, -2.59564986e-005,
          -1.90377032e-005, -1.65098718e-005, -1.64877620e-005,
          -1.77403799e-005, -4.57643864e-006, 4.50034520e-007,
          1.36122139e-006, 6.08726896e-006, -1.07625274e-005,
          7.61453975e-007, -5.12981933e-006, 1.22782849e-005,
          1.77265792e-005, -2.66776033e-006, 1.94352560e-005,
          1.73016942e-005, 1.83178381e-005, 1.93406086e-005,
          1.73694389e-005, 1.81641517e-005, 2.50824141e-005,
          2.41734142e-006, 1.03705361e-005, 1.10792525e-005,
          6.63949550e-006, 8.24350445e-006, 5.14505155e-006,
          8.32280875e-006, 1.31940205e-005, 1.02348768e-005,
          1.77411421e-005, 1.33864178e-005, 2.67376145e-005,
          4.35092006e-005, 2.16042463e-005, 3.87751134e-005,
          1.90102928e-005, 3.91996327e-005, 2.27296769e-005,
          1.65307792e-005, 1.48464778e-005, 1.90724932e-005,
          1.94854310e-005, 1.30778490e-005, 1.72530399e-005,
          2.62615413e-005, 2.44435887e-005, 2.72284906e-005,
          1.16920000e-005, 7.83760970e-006, 1.89678303e-005,
          -1.00226612e-006, 5.33948196e-006, 5.17080343e-006,
          6.42180430e-006, 9.38190533e-006, 6.19608591e-006,
          5.68266250e-006, -4.46036074e-006, -5.04783793e-006,
          -1.56607541e-006, -3.19160836e-006, -7.25816608e-006,
          -1.79540421e-005, -3.34059041e-005, -3.74751507e-005,
          -4.42734381e-005, -6.86289713e-005, -7.42261254e-005,
          -1.14772141e-004, -1.02404745e-004, -1.26907136e-004,
          -1.37480019e-004, -1.18566000e-004, -8.23105947e-005,
          -5.67199313e-005, -3.98317534e-005, -2.58291129e-005,
          -3.47112036e-005, -2.53438266e-005, -6.00003978e-006,
          7.02672287e-006, -4.86945191e-006, 1.78500231e-005,
          1.09989232e-005, 7.09055348e-006, 1.43633197e-005,
          -7.85119525e-008, 2.63166075e-005, 3.89995766e-005,
          9.01386375e-006, 1.22478023e-005, 1.30715734e-005,
          1.05067375e-005, 2.61644709e-005, 1.75966161e-005,
          -1.92540838e-007, -1.64801486e-006, 1.09875264e-005,
          -6.59765510e-006, -6.12095437e-006, 9.31329578e-006,
          2.27341388e-006, -1.25908164e-005, 5.48907337e-006,
          1.58615194e-006, 1.28422494e-006, -6.57328519e-006,
          6.30549812e-006, -1.33392832e-005, 7.95665437e-006,
          -1.11150948e-005, 6.40235385e-006, -4.96973200e-007,
          -1.55240105e-006, -1.68105680e-006, -6.28611861e-006,
          -1.91957333e-005, -2.07700905e-005, -2.42151800e-005,
          -2.21589562e-005, -1.99693895e-005, -1.61928892e-005,
          -2.58222826e-005, -2.43170307e-005, -2.52410064e-005,
          -2.41433008e-005, -2.57400334e-005, -4.24157843e-005,
          -4.14619608e-005, -4.90004495e-005, -4.52607055e-005,
          -4.35438888e-005, -3.76064163e-005, -4.15236973e-005,
          -5.94204357e-005, -8.10001511e-005, -6.08935952e-005,
          -6.06001449e-005, -7.69522958e-005, -8.32839578e-005,
          -4.92984145e-005, -5.61900415e-005, -6.63355604e-005,
          -5.51091289e-005, -7.40523465e-005, -6.58747085e-005,
          -7.58980532e-005, -6.73807153e-005, -6.81430611e-005,
          -4.55553527e-005, -4.43043027e-005, -2.47345306e-005,
          -1.65400943e-005, -1.81763789e-005, -1.17938725e-005,
          -6.27573127e-006, -7.83075939e-006, -4.62138178e-006,
          -1.50114511e-006, 5.35443132e-006, 2.79253413e-006,
          1.24042772e-005, 9.53088875e-006, 1.82526965e-005,
          7.18646197e-006, 7.16540512e-007, 7.60607873e-006,
          9.18085971e-006, 5.91277239e-006, 1.75976595e-006,
          -6.41367160e-006, -1.00040761e-005, -6.85558598e-006,
          -1.09191133e-005, -8.14273080e-005, 3.78473960e-005,
          3.50472663e-004, -6.87153515e-005, -4.98159716e-005,
          -3.97971016e-005, -3.35949517e-005, -7.35055073e-005,
          -1.01101679e-004, -1.02812184e-004, -1.20892553e-004,
          -1.86316785e-004, -1.88649647e-004, -1.85647310e-004,
          -1.49743137e-004, -1.19480901e-004, -3.65998130e-005,
          -1.48021047e-006, 1.54123118e-005, 2.80745426e-005,
          4.66484016e-005, 5.10172067e-005, 4.00021963e-005,
          3.03695670e-005, 4.39180621e-005, 2.22469153e-005,
          3.80530219e-005, 1.03638304e-005, 1.13333208e-005,
          -3.97138774e-006, -4.90462980e-006, -1.22160791e-005,
          -2.72774250e-005, -3.54343611e-005, -5.34831925e-005,
          -4.08034393e-005, -4.03734812e-005, -3.56105884e-005,
          -5.30379148e-005, -4.65445701e-005, -4.66065030e-005,
          -5.57598069e-005, -5.72690733e-005, -3.88944900e-005,
          -5.75956983e-005, -4.16991716e-005, -5.92629440e-005,
          -7.18924857e-005, -5.32867780e-005, -4.95759014e-005,
          -5.20210851e-005, -6.84818879e-005, -5.40426372e-005,
          -7.03562473e-005, -5.29734316e-005, -7.21485630e-005,
          -7.07905856e-005, -4.96603498e-005, -4.72151441e-005,
          -5.77285427e-005, -4.06548352e-005, -4.38400530e-005,
          -2.54504503e-005, -2.52814480e-005, -4.45939004e-005,
          -2.72735924e-005, -3.05111989e-005, -4.43719073e-005,
          -4.31100852e-005, -3.76105600e-005, -2.96116268e-005,
          -3.04501282e-005, -1.95947432e-005, -2.30975384e-005,
          -1.51770391e-005, -2.26353859e-005, -1.18215057e-005,
          -1.44599508e-005, 8.04261708e-006, 9.79192555e-006,
          -1.51247480e-006, 8.08252025e-006, -1.05790587e-005,
          3.31537308e-006, -7.40307405e-006, 2.83226109e-006,
          4.37485369e-006, 6.93696575e-006, 1.13027781e-005,
          2.68081362e-006, 1.26186833e-005, 1.74576599e-005,
          2.14127649e-005, 3.89537890e-005, 2.67523847e-005,
          1.44327387e-005, 6.03123908e-006, 1.17847731e-005,
          4.33941807e-007, 1.03312186e-006, -4.77973117e-006,
          -1.04480650e-005, -2.22525478e-006, -1.05434892e-005,
          6.32437923e-006, 7.61903266e-006, 1.54366426e-005,
          9.68185395e-006, 6.08022856e-006, 6.97636642e-006,
          5.00683109e-006, 1.72864220e-005, 9.77926720e-006,
          2.15114269e-005, 2.85123897e-005, 1.85605550e-005,
          2.60510460e-005, 3.70673552e-005, 2.95857644e-005,
          3.62980536e-005, 2.18492241e-005, 2.39662477e-005,
          2.04331100e-005, 2.28960453e-005, 2.44967578e-005,
          1.49803345e-005, 2.49701206e-005, 1.88120666e-005,
          2.10001272e-005, 2.44307357e-005, 2.39166984e-005,
          2.22702020e-005, 2.04207245e-005, 2.02226129e-005,
          9.60546367e-006, 2.32201110e-005, 1.38856303e-005,
          3.47747518e-005, 2.00402519e-005, 1.58957500e-005,
          1.52261364e-005, 1.39680715e-005, 1.51413942e-005,
          6.14810187e-006, 4.88945398e-006, 6.58880890e-006,
          -6.47743445e-006, -9.87227668e-006, -4.47232060e-006,
          -1.76052999e-005, -2.05118013e-005, -3.94513881e-005,
          -3.95271745e-005, -3.92915026e-005, -5.16877226e-005,
          -3.93437804e-005, -7.18147930e-005, -7.31599648e-005,
          -9.53925410e-005, -5.16587352e-005, -2.97992283e-005,
          -2.03879554e-005, -1.95519533e-005, -1.22823476e-005,
          -2.36825745e-005, -3.81906148e-006, -9.85654606e-006,
          -5.94830090e-006, -3.34926563e-006, -4.60135016e-006,
          -6.14164355e-006, -7.99147074e-006, 3.59836213e-006,
          -2.44080293e-005, -2.77308591e-005, -1.96037672e-005,
          -9.97572079e-006, 5.76934909e-008, -1.22404663e-005,
          -1.22258052e-005, 9.89270461e-007, -4.70619898e-006,
          -7.05149250e-006, -6.58233148e-006, -4.31649511e-007,
          -6.47076786e-006, 2.77752702e-006, -5.00491524e-006,
          8.78082483e-006, -6.64975278e-006, -3.76013622e-006,
          5.40038059e-007, 6.57652299e-006, 1.01143780e-006,
          -7.50623440e-006, -1.12348407e-005, 2.96372059e-006,
          -4.96176517e-006, -2.52718182e-005, -1.94379209e-005,
          -2.36944597e-005, -2.73138867e-005, -2.38210614e-005,
          -2.79660380e-005, -3.38450191e-005, -2.71638964e-005,
          -2.41077632e-005, -2.83377285e-005, -2.47121752e-005,
          -3.10664072e-005, -2.30268561e-005, -2.69279117e-005,
          -3.00185402e-005, -5.07377517e-005, -4.04230486e-005,
          -6.11436772e-005, -4.54911533e-005, -5.02179755e-005,
          -4.36096780e-005, -6.56057673e-005, -6.47129418e-005,
          -8.56685583e-005, -6.34070238e-005, -6.44230895e-005,
          -7.54134162e-005, -7.19308591e-005, -7.67639285e-005,
          -7.30620231e-005, -6.76096679e-005, -8.14052764e-005,
          -5.93499826e-005, -6.53236129e-005, -8.25916723e-005,
          -8.13129009e-005, -5.81042041e-005, -3.39898725e-005,
          -3.63188883e-005, -1.61558419e-005, -1.85025838e-005,
          -1.27229405e-005, -1.19016977e-005, -8.18789158e-006,
          -2.84353723e-006, -5.71782812e-006, -1.12094476e-005,
          -3.83722136e-006, -9.04814260e-006, -1.87110561e-006,
          -4.80866311e-006, 5.78228401e-006, -9.40247628e-006,
          -1.20340621e-006, -2.23887446e-006, 1.16606138e-007,
          5.99383884e-006, 4.00163435e-006, 9.24623691e-006,
          5.20066460e-005, 1.02926402e-004, 2.55683176e-006,
          -3.89485103e-005, -1.86603156e-005, -8.79523213e-005,
          -1.57405491e-004, -1.96324880e-004, -2.07996753e-004,
          -1.92753156e-004, -1.62174489e-004, -8.47782212e-005,
          -2.31089907e-005, 3.43759311e-005, 6.67615750e-005,
          6.33491727e-005, 7.22742334e-005, 4.67684258e-005,
          5.27469892e-005, 2.53505259e-005, -7.49813671e-006,
          1.87189307e-005, -6.57847113e-006, -1.40852180e-005,
          -1.58884541e-005, -4.20192519e-005, -3.46409579e-005,
          -5.81048371e-005, -6.34970493e-005, -4.98513436e-005,
          -6.91833411e-005, -7.47540544e-005, -8.19447960e-005,
          -7.09969681e-005, -7.37727605e-005, -6.62922248e-005,
          -7.86427336e-005, -6.36296099e-005, -5.09327256e-005,
          -6.24080058e-005, -4.97584260e-005, -5.78598301e-005,
          -3.95999523e-005, -4.14708375e-005, -3.68371366e-005,
          -4.16152106e-005, -3.07757073e-005, -1.63061777e-005,
          -3.99198761e-005, -2.80685981e-005, -5.60883855e-005,
          -5.87146533e-005, -5.41430527e-005, -5.40253823e-005,
          -6.23298038e-005, -5.79531079e-005, -6.99482553e-005,
          -6.40585858e-005, -6.75668052e-005, -4.57979659e-005,
          -6.58569552e-005, -5.52390447e-005, -7.24817583e-005,
          -4.66519268e-005, -6.90973175e-005, -6.46986155e-005,
          -5.57693020e-005, -6.88544533e-005, -3.68742258e-005,
          -4.49906074e-005, -4.84392476e-005, -4.10396824e-005,
          -3.35425975e-005, -3.19350474e-005, -3.24795983e-005,
          -2.10198741e-005, 2.36974074e-007, -1.41151795e-005,
          -3.14126828e-006, -2.21935738e-006, 9.86579835e-006,
          -9.23909511e-007, -2.06915456e-006, -3.15386114e-006,
          1.72652165e-006, 1.13559072e-005, -1.20798150e-005,
          1.28262354e-006, -2.65772201e-006, 2.09764839e-005,
          1.79035105e-005, 1.93293108e-005, 2.48450742e-005,
          2.00881186e-005, 2.65337640e-005, 2.50672492e-005,
          3.82630205e-005, 2.43005015e-005, 3.01236851e-005,
          4.11475194e-005, 3.03221550e-005, 2.58190776e-005,
          5.02260846e-005, 4.18046329e-005, 6.43275343e-005,
          6.56842458e-005, 8.32801234e-005, 7.36811635e-005,
          8.27192634e-005, 9.24996493e-005, 9.05013876e-005,
          6.90859015e-005, 8.57560080e-005, 7.78453395e-005,
          5.99052401e-005, 5.94020785e-005, 5.22745868e-005,
          6.32839074e-005, 6.65113475e-005, 4.87550278e-005,
          4.81422248e-005, 3.85671156e-005, 4.61753880e-005,
          4.40760341e-005, 4.27601226e-005, 3.91238173e-005,
          3.07290902e-005, 2.96482685e-005, 3.80460588e-005,
          2.56032108e-005, 1.94499280e-005, 1.54475310e-005,
          1.99095321e-005, 1.37845100e-005, 1.54301815e-005,
          2.01194125e-005, 2.43660998e-005, 8.03648072e-006,
          1.88527501e-005, 2.44485836e-005, 2.73339774e-005,
          1.52605444e-005, 1.84504897e-005, 1.33486401e-005,
          9.03861383e-006, 1.22481379e-005, -9.06917558e-006,
          -8.33666218e-006, -2.13396524e-005, -2.25670628e-005,
          -2.63550191e-005, -5.59608743e-005, -8.08590048e-005,
          -7.69081598e-005, -1.05513725e-004, -9.65118888e-005,
          -1.44268968e-004, -9.14638658e-005, -8.51537479e-005,
          -4.55132176e-005, -3.66023560e-005, -3.30398252e-005,
          -2.35225816e-005, -3.95247298e-005, -3.25368637e-005,
          -2.05799588e-005, -2.09703703e-005, -2.49796267e-005,
          -2.94013116e-005, -2.10563176e-005, -3.14218050e-005,
          -3.69655936e-005, -2.04851476e-005, -2.57503398e-005,
          -2.13410767e-005, -1.51501617e-005, -1.02196418e-005,
          -1.68713759e-005, -1.89536640e-005, -3.28676069e-005,
          -5.73733405e-006, -1.21944277e-005, 1.42602369e-006,
          -1.13417300e-005, 3.38367113e-006, 2.13994394e-006,
          -7.81822382e-006, -7.66061930e-006, 4.87467014e-006,
          7.21791139e-006, -1.17841391e-005, -5.25346559e-006,
          -8.64856156e-006, -3.52832626e-006, -1.14066825e-005,
          -3.84702707e-006, -2.42982333e-005, -2.22782110e-005,
          -2.35963089e-005, -2.50092908e-005, -2.47234711e-005,
          -2.96869839e-005, -2.56225812e-005, -2.30830319e-005,
          -4.18569070e-005, -2.78210464e-005, -3.32700947e-005,
          -3.57648823e-005, -3.08115232e-005, -3.92953880e-005,
          -4.17200208e-005, -5.28935852e-005, -4.00294448e-005,
          -4.09451859e-005, -6.95467679e-005, -5.31491096e-005,
          -4.93422667e-005, -6.36877521e-005, -8.16741522e-005,
          -6.45209002e-005, -6.56598058e-005, -7.95475207e-005,
          -7.38499875e-005, -5.65321461e-005, -6.47002234e-005,
          -5.62986424e-005, -9.40704704e-005, -8.25121169e-005,
          -7.34504574e-005, -7.51829575e-005, -7.30214015e-005,
          -6.01077518e-005, -6.36016121e-005, -3.24337816e-005,
          -2.63457587e-005, -2.61545101e-005, -2.95791979e-005,
          -2.85906008e-005, -2.17274646e-005, -2.33398860e-005,
          -1.92470598e-005, -1.71228858e-005, -1.76752819e-005,
          -1.03280627e-005, -7.46752175e-006, -9.75460080e-006,
          -2.16300478e-007, -9.97364532e-006, 2.56676208e-006,
          -5.12430063e-007, 7.61397723e-006, 2.23992356e-005,
          6.64087347e-005, 7.23905978e-005, 2.37499153e-005,
          -1.28449065e-005, -2.23780953e-005, -1.15478862e-004 ]
   decision_functions:
      -
         sv_count: 1
         rho: -1.3996484912800653e+000
         alpha: [ 1. ]
         index: [ 0 ]
